<?xml version="1.0"?>
<opencv_storage>
<stage20>
  <maxWeakCount>5</maxWeakCount>
  <stageThreshold>-4.5593723654747009e-01</stageThreshold>
  <weakClassifiers>
    <_>
      <internalNodes>
        0 -1 267255 -9.3093775212764740e-02</internalNodes>
      <leafValues>
        7.3684209585189819e-01 -2.7659574151039124e-01</leafValues></_>
    <_>
      <internalNodes>
        0 -1 658048 1.4447461580857635e-05</internalNodes>
      <leafValues>
        -3.3222523331642151e-01 8.3461457490921021e-01</leafValues></_>
    <_>
      <internalNodes>
        0 -1 1172186 1.1519236068124883e-05</internalNodes>
      <leafValues>
        -2.4174563586711884e-01 1.</leafValues></_>
    <_>
      <internalNodes>
        0 -1 2658120 4.0048849768936634e-05</internalNodes>
      <leafValues>
        -4.9436074495315552e-01 7.8127121925354004e-01</leafValues></_>
    <_>
      <internalNodes>
        0 -1 1261554 -3.4700693504419178e-05</internalNodes>
      <leafValues>
        9.6548289060592651e-01 -2.7784970402717590e-01</leafValues></_></weakClassifiers></stage20>
</opencv_storage>
